digraph Tree {
node [shape=box, style="rounded", color="black", fontname=helvetica] ;
edge [fontname=helvetica] ;
0 [label="Draft Age <= 21.5\nmse = 11.6\nsamples = 295\nvalue = 3.0"] ;
1 [label="Offensive Win Shares <= 2.8\nmse = 16.5\nsamples = 106\nvalue = 4.7"] ;
0 -> 1 [labeldistance=2.5, labelangle=45, headlabel="True"] ;
2 [label="2-Point Field Goal Percentage <= 0.6\nmse = 8.1\nsamples = 62\nvalue = 3.0"] ;
1 -> 2 ;
3 [label="Height (cm) <= 186.5\nmse = 7.0\nsamples = 61\nvalue = 2.8"] ;
2 -> 3 ;
4 [label="mse = 9.4\nsamples = 5\nvalue = 5.4"] ;
3 -> 4 ;
5 [label="Steals Per Game <= 2.0\nmse = 6.0\nsamples = 56\nvalue = 2.5"] ;
3 -> 5 ;
6 [label="Assists Per Game <= 0.4\nmse = 5.2\nsamples = 51\nvalue = 2.3"] ;
5 -> 6 ;
7 [label="mse = 0.0\nsamples = 1\nvalue = 6.0"] ;
6 -> 7 ;
8 [label="mse = 4.8\nsamples = 50\nvalue = 2.1"] ;
6 -> 8 ;
9 [label="mse = 4.9\nsamples = 5\nvalue = 6.0"] ;
5 -> 9 ;
10 [label="mse = 0.0\nsamples = 1\nvalue = 9.4"] ;
2 -> 10 ;
11 [label="2-Point Field Goals Per Game <= 6.4\nmse = 19.0\nsamples = 44\nvalue = 6.9"] ;
1 -> 11 ;
12 [label="Strength of Schedule <= 10.2\nmse = 16.1\nsamples = 38\nvalue = 6.0"] ;
11 -> 12 ;
13 [label="Win Shares <= 8.2\nmse = 12.7\nsamples = 34\nvalue = 5.3"] ;
12 -> 13 ;
14 [label="Assists Per Game <= 0.8\nmse = 11.2\nsamples = 31\nvalue = 4.9"] ;
13 -> 14 ;
15 [label="mse = 2.1\nsamples = 4\nvalue = 1.5"] ;
14 -> 15 ;
16 [label="mse = 10.5\nsamples = 27\nvalue = 5.4"] ;
14 -> 16 ;
17 [label="mse = 0.2\nsamples = 3\nvalue = 10.7"] ;
13 -> 17 ;
18 [label="mse = 5.1\nsamples = 4\nvalue = 12.2"] ;
12 -> 18 ;
19 [label="mse = 8.6\nsamples = 6\nvalue = 11.5"] ;
11 -> 19 ;
20 [label="Win Shares <= 6.2\nmse = 6.3\nsamples = 189\nvalue = 2.0"] ;
0 -> 20 [labeldistance=2.5, labelangle=-45, headlabel="False"] ;
21 [label="True Shooting Percentage <= 0.6\nmse = 3.9\nsamples = 145\nvalue = 1.5"] ;
20 -> 21 ;
22 [label="2-Point Field Goals Per Game <= 3.4\nmse = 2.1\nsamples = 71\nvalue = 0.9"] ;
21 -> 22 ;
23 [label="mse = 4.4\nsamples = 18\nvalue = 1.8"] ;
22 -> 23 ;
24 [label="Offensive Win Shares <= 1.4\nmse = 1.1\nsamples = 53\nvalue = 0.6"] ;
22 -> 24 ;
25 [label="mse = 0.6\nsamples = 10\nvalue = -0.2"] ;
24 -> 25 ;
26 [label="Total Rebounds Per Game <= 2.9\nmse = 1.1\nsamples = 43\nvalue = 0.8"] ;
24 -> 26 ;
27 [label="mse = 0.0\nsamples = 1\nvalue = 4.3"] ;
26 -> 27 ;
28 [label="mse = 0.9\nsamples = 42\nvalue = 0.8"] ;
26 -> 28 ;
29 [label="Draft Age <= 22.1\nmse = 4.9\nsamples = 74\nvalue = 2.1"] ;
21 -> 29 ;
30 [label="mse = 6.9\nsamples = 23\nvalue = 3.2"] ;
29 -> 30 ;
31 [label="Win Shares <= 5.0\nmse = 3.3\nsamples = 51\nvalue = 1.7"] ;
29 -> 31 ;
32 [label="Year <= 1996.5\nmse = 3.5\nsamples = 28\nvalue = 2.2"] ;
31 -> 32 ;
33 [label="mse = 0.8\nsamples = 2\nvalue = 5.0"] ;
32 -> 33 ;
34 [label="mse = 2.8\nsamples = 26\nvalue = 1.9"] ;
32 -> 34 ;
35 [label="mse = 1.9\nsamples = 23\nvalue = 0.8"] ;
31 -> 35 ;
36 [label="Steals Per Game <= 1.8\nmse = 10.5\nsamples = 44\nvalue = 3.9"] ;
20 -> 36 ;
37 [label="Games <= 39.5\nmse = 8.3\nsamples = 37\nvalue = 3.1"] ;
36 -> 37 ;
38 [label="Defensive Win Shares <= 5.0\nmse = 5.5\nsamples = 36\nvalue = 2.7"] ;
37 -> 38 ;
39 [label="Year <= 2005.5\nmse = 4.0\nsamples = 33\nvalue = 2.3"] ;
38 -> 39 ;
40 [label="mse = 4.0\nsamples = 23\nvalue = 2.9"] ;
39 -> 40 ;
41 [label="mse = 1.8\nsamples = 10\nvalue = 1.1"] ;
39 -> 41 ;
42 [label="mse = 4.9\nsamples = 3\nvalue = 6.3"] ;
38 -> 42 ;
43 [label="mse = 0.0\nsamples = 1\nvalue = 10.2"] ;
37 -> 43 ;
44 [label="mse = 5.1\nsamples = 7\nvalue = 7.5"] ;
36 -> 44 ;
}